{
    "layer_sizes": [
        25,
        64,
        10
    ],
    "weights": [
        [
            [
                -0.34413547279209666,
                0.17681231515951368,
                0.0072788415839623085,
                -0.10790049149852894,
                0.23126763592729427,
                0.41794732059027717,
                -0.1429858786618625,
                0.039638797369724685,
                -0.038823110747991024,
                -0.04724215080526616,
                -0.011840737230149442,
                -0.5274962390794945,
                0.018422734344328374,
                -0.09005772866476597,
                -0.12189550998141928,
                -0.4281949265155059,
                -0.17941926002331765,
                -0.13082166686790792,
                -0.006859192197604956,
                0.03306882176696819,
                -0.023776022441124978,
                0.1126736829771512,
                0.3838402466960672,
                0.019597546512972727,
                -0.41434394195695734,
                -0.22145081420129842,
                -0.26783756651982943,
                -0.03943289137909659,
                -0.2848878225679921,
                0.04027235767331522,
                0.004671374451402335,
                0.08021686132932644,
                -0.06638571821223273,
                -0.11525539132778846,
                0.049709706067226286,
                -0.028528970333793254,
                -0.3769603852968638,
                0.15149556736365638,
                -0.04744385229496293,
                -0.0030356965383779608,
                0.27477093423175203,
                0.028537031693898634,
                0.15306522052809549,
                -0.24203645759200276,
                0.36642446525719924,
                -0.14832497570561323,
                0.2437516008542209,
                -0.057915386051868196,
                -0.12765824689548577,
                0.3446377760733423,
                -0.12158193220055691,
                0.05795763606193294,
                -0.17120385603123717,
                -0.23200319250482873,
                -0.0036289487399179107,
                -0.03834254887072609,
                0.07029106665095049,
                0.20302599464693435,
                -0.22768988793936565,
                -0.14865599516630648,
                0.0656426399396578,
                0.14468267944943508,
                0.05843013781689733,
                -0.09224999017845975
            ],
            [
                -0.2837653861531132,
                -0.0028165503770407516,
                -0.09555572737103127,
                0.10401505913619623,
                0.10180402985792494,
                -0.12018904857204395,
                -0.1734850909298658,
                0.16816844950120702,
                -0.03900501206438246,
                0.0812109142403625,
                0.25780645872069513,
                -0.07175096874622167,
                -0.09530807953153576,
                0.1819431704115852,
                -0.09936745173901491,
                -0.03580595475608413,
                -0.27439302906892743,
                -0.024650636894013086,
                0.015051740810457308,
                -0.1492991561296995,
                -0.003650216261925065,
                -0.13332093626693275,
                0.11918409623140817,
                0.06767854244195433,
                -0.003369568654829809,
                -0.2988524246238569,
                0.16629918914914965,
                0.21463059161270756,
                -0.3662089984373201,
                0.08034840063368479,
                0.3186760237670834,
                0.19523128067693823,
                0.08166322453612651,
                0.06824803908586942,
                -0.05339660886832518,
                0.011178025850573028,
                0.19771676761345008,
                0.2351442285475356,
                0.0033346239909037554,
                0.11205933984570504,
                0.10205664689030385,
                0.10421430031302557,
                0.09487595761544373,
                -0.24202195342549304,
                0.024569725626266248,
                0.0774779082369238,
                0.20844754178586736,
                -0.15055575795785606,
                0.06607772850754075,
                0.3618976352837347,
                0.159029741566798,
                0.06955376829646,
                0.034647384079789664,
                -0.11903488113631555,
                -0.3403312205784751,
                -0.004713934889940293,
                0.4774618013659905,
                0.326959951273605,
                0.44951871949203387,
                0.09116892625201058,
                0.009324035919394848,
                0.37058725990219404,
                -0.10534039917735087,
                -0.07670844180507391
            ],
            [
                -0.17239555746457402,
                -0.15322864850176257,
                0.1872959242335949,
                0.14802492269872117,
                -0.17671407603193617,
                -0.007846062159628618,
                -0.37387316987892866,
                0.04722977825660129,
                -0.013916121151345119,
                -0.423795428941662,
                -0.08433417768288459,
                -0.01080454736196953,
                0.08424378535111621,
                0.5064139832976041,
                0.03832524833154087,
                -0.3516246003095798,
                0.08175199583480468,
                0.110735786362835,
                -0.12080039378514423,
                0.011763279906234695,
                -0.08804584759880181,
                0.06620376185753599,
                -0.342594098118488,
                0.027223391084251845,
                0.053958057086352165,
                -0.3264893677278473,
                0.12946152432151892,
                -0.3110570118396716,
                -0.4056759737723474,
                0.15684571328661184,
                0.225700225589953,
                0.10802076135737355,
                0.019691047249431975,
                0.07235270155725673,
                0.09983095457233988,
                -0.08344192827611126,
                0.006272758475900537,
                -0.20797211202663765,
                0.36769140437001413,
                -0.09667049465374072,
                0.14382551832781415,
                -0.032819052808123625,
                -0.05085859703668626,
                -0.09679162527741605,
                -0.005334583799869484,
                0.2981934458186654,
                0.005891325679733453,
                0.030411975627895493,
                0.08616153172351518,
                0.7741130542408816,
                0.1557698477661032,
                0.45589135394355396,
                0.11277396902490006,
                -0.21932232375853092,
                -0.8054489061317792,
                0.14255723687667496,
                0.215752136038933,
                0.12212057787849694,
                0.05470220764342625,
                0.12823971820991228,
                -0.06864902658151735,
                0.3427349957036991,
                0.06494365617911012,
                0.5352971904412592
            ],
            [
                0.11968732148749776,
                -0.01560850731056959,
                0.0698302149938441,
                0.19652014751912839,
                -0.20878183701199177,
                0.16993394876179027,
                -0.002845877425411094,
                -0.15984176106570877,
                0.45946535756328105,
                -0.14748087640867238,
                0.16661036509396732,
                0.2757648723242712,
                -0.05376428927583806,
                0.19894255656523743,
                -0.10121553854368626,
                0.15934311900685555,
                -0.02498136617705649,
                0.05274413620983643,
                0.09541703110829758,
                0.14246052999357903,
                0.009807834117347331,
                0.21277471912830323,
                0.23563423859293137,
                0.037260078819447415,
                0.04792520321515534,
                0.15777910328411993,
                0.2163504844205432,
                -0.0008840080648540971,
                -0.31851271566166794,
                -0.04114779649090023,
                0.12907465052607428,
                -0.4058973752785129,
                0.167180390358496,
                -0.19757381490103998,
                -0.08032357468504103,
                -0.16268129059926417,
                0.361026624440744,
                0.02506207847487781,
                -0.023918929399188993,
                0.1698545283235545,
                -0.04614918204188836,
                0.0433515589354235,
                0.006210541103631316,
                -0.11080446428984823,
                0.005614971303581427,
                0.027078410112876716,
                -0.02660187619742423,
                0.22186131894758052,
                0.31063451880803344,
                0.6196685630799159,
                -0.0549233683749139,
                0.32696148683776416,
                0.1250383186284316,
                0.1021660306633492,
                -0.17197652512767375,
                -0.10243314121699594,
                -0.3460723239169944,
                -0.037645699201442714,
                -0.2962722674759369,
                0.09550511219147287,
                -0.03213746906225345,
                0.18790749609197296,
                -0.11301092412121469,
                -0.08615219597595472
            ],
            [
                -0.021287297484102977,
                0.2990306637730482,
                0.20388419944130082,
                0.16116300944409506,
                -0.5222988894937106,
                0.044758787538782575,
                -0.18714403711580568,
                -0.1724558460746801,
                0.4729509154648866,
                -0.07408558562171778,
                -0.033208537148225054,
                -0.0894404450670442,
                -0.13291342649405552,
                -0.07041371691262549,
                0.0011239287608349618,
                -0.14964594759828065,
                0.09278303337352337,
                -0.20700756775865806,
                -0.13573245222832467,
                -0.0469597788077737,
                -0.018348634936201313,
                -0.17658212568668213,
                -0.03480301709073961,
                0.22207790907509115,
                0.41828349708745394,
                0.08671824548852795,
                0.07514433276499212,
                -0.13234312677488613,
                0.006826841892923274,
                0.14716620868105415,
                -0.2766820440154697,
                -0.26626836468626586,
                -0.3181149874477712,
                0.21451350457083662,
                0.005650398167656505,
                0.1203753835235376,
                -0.19976028446123703,
                0.2692416982619205,
                -0.01747770884893436,
                0.039501048717253844,
                -0.08157027620919449,
                -0.035956170765193404,
                -0.0238834389784093,
                -0.546106950170961,
                -0.20811906013707157,
                -0.035778518344336624,
                0.36780960964831283,
                -0.2150323819105733,
                -0.2787023820532261,
                0.10631029057493237,
                0.49235311606541166,
                0.06389421887004695,
                -0.018229327809991206,
                -0.2288860234188289,
                0.2905535682510408,
                0.23010422063018754,
                0.37182339684666765,
                -0.09873422160647431,
                0.1792890178834835,
                -0.04688472390391258,
                0.3721272897353042,
                0.1459980784918805,
                -0.04436508910643064,
                -0.10454445891862307
            ],
            [
                0.046982318862876106,
                -0.12714870363932906,
                -0.14005153329734757,
                -0.1682095642492184,
                -0.27847564674822295,
                0.002542304219295134,
                0.1637374959265974,
                -0.016428478804864605,
                -0.07690198147623593,
                -0.3474038350293115,
                0.05874980956916264,
                0.18700954429819563,
                -0.20597244854726965,
                -0.06059622950937485,
                -0.2127212826878126,
                -0.013190487074479574,
                0.09440879859474133,
                -0.2796912934338485,
                -0.05221195557140683,
                0.15518375204205395,
                -0.25448582386029145,
                0.03646020629813859,
                -0.3002939936082475,
                -0.030289965690722703,
                0.22141229949919675,
                0.4421584487615941,
                -0.05812521882716598,
                -0.0923367576776558,
                -0.5753862870982444,
                -0.16715094154606888,
                -0.12845795554335981,
                -0.21445918924468446,
                0.1656058516890193,
                0.10310762580644596,
                0.015562616341838979,
                0.002477415303254835,
                0.06990603994463612,
                -0.5651293051848655,
                0.014848546877405248,
                -0.09412230401146414,
                0.2743476882768945,
                -0.15405983281388824,
                0.07691173282908127,
                0.16803945309630014,
                0.11301944370078087,
                -0.4685504013485537,
                0.01718470015367386,
                -0.12879236981263237,
                0.0796806920797305,
                0.1353830778431365,
                -0.23607417808576284,
                0.06906574027248384,
                0.16164457266855584,
                0.14561805762209393,
                0.2505762338325908,
                -0.12726685487831393,
                -0.17183526113929465,
                0.526040359820975,
                -0.2129675587127056,
                0.07889035644090202,
                -0.2517765221339293,
                -0.32098746730540373,
                -0.1415309861513977,
                -0.12612608480970613
            ],
            [
                0.2208388957618644,
                -0.029425411609010393,
                -0.06832053026082521,
                -0.1275628577765251,
                -0.34276306031885734,
                0.08746306891930253,
                -0.30025288155148405,
                0.003829222586272321,
                -0.07366923403170418,
                0.2049306282360518,
                0.0016164933807300147,
                0.20588750843095133,
                -0.2668156181081661,
                -0.1519842033802194,
                -0.04732640565332655,
                -0.11113798329719854,
                -0.15758808836316113,
                -0.2972756662164364,
                -0.03793319869160568,
                0.06581272134286725,
                -0.3428989312028689,
                0.06666170741325092,
                -0.2735565965617996,
                -0.0509918886970917,
                0.4679066675023608,
                0.25277793328274484,
                0.07571983521012417,
                0.080862162679408,
                -0.08050533078112332,
                -0.014130002379621023,
                -0.13714780009773853,
                -0.26275641749247985,
                0.10820122766116223,
                -0.06859737267627179,
                0.33963004779966643,
                -0.01239197988353724,
                -0.035184591997461996,
                -0.3478735780045481,
                -0.10089450340206986,
                -0.46935556387078764,
                0.028927767038466414,
                -0.06777814096209808,
                0.16263543491123314,
                0.0582370869376736,
                -0.07784328706784703,
                -0.527712208340133,
                0.13464590861020528,
                0.044086347199053064,
                0.166156975246279,
                -0.10370064545083574,
                0.09195895512026944,
                -0.3154115182721142,
                0.28240982680476584,
                -0.06040012780798585,
                0.4823244249500626,
                -0.22265752747790574,
                -0.2395523011182389,
                0.2392249738639122,
                -0.03648669211428243,
                -0.3501653019926521,
                -0.10365093257638427,
                0.3683823045730303,
                -0.07984048975007016,
                -0.4675364268498156
            ],
            [
                0.30091869040589003,
                -0.14365234641599892,
                0.24553027733876895,
                0.08216073326144394,
                -0.22910196620634127,
                -0.031115605780407316,
                -0.1320184203563779,
                0.1288397424177955,
                -0.06558070021836805,
                0.02157397715152515,
                0.0850126147171529,
                0.18260061324954258,
                -0.10980608003595389,
                0.2281782905558287,
                -0.07385742218464023,
                0.1027318008820293,
                -0.09950025797026002,
                0.16621236952126237,
                -0.06884800424446218,
                0.24208237779482816,
                -0.3904694097873715,
                0.01025567064140621,
                -0.4379684057901641,
                -0.006070377765816603,
                0.025545458218776042,
                -0.5687563257811752,
                0.3116769394716684,
                -0.1185147250951939,
                -0.002002989063693531,
                0.13060836721397387,
                0.15976770452700692,
                0.49975181879098296,
                0.08745654569382146,
                0.09314590587099283,
                -0.1435087960456206,
                -0.10581744919109308,
                0.0872074300916085,
                -0.014465220522317614,
                -0.03846315904096594,
                -0.1854263164727833,
                -0.10155918863149713,
                0.20326012273327757,
                -0.21626325670069715,
                -0.22871670484446827,
                -0.2735748833877138,
                0.09951749049991565,
                -0.2112748111603456,
                0.25725966097693315,
                0.04324261133701349,
                -0.08053546774546809,
                0.07918317872389298,
                0.08697569129546133,
                0.26309622231313146,
                0.19285519057999656,
                -0.1573588972683815,
                0.14762326510669158,
                0.16940909405263624,
                -0.21565361495514782,
                -0.1847714044715764,
                0.23839238264502655,
                -0.036187979791668365,
                0.07775404487900482,
                -0.09877567266326559,
                -0.0696448960673028
            ],
            [
                -0.4224944702295129,
                0.16615795865533656,
                0.4416595339430782,
                0.1267904574480714,
                -0.03911788021235981,
                -0.10314840165453902,
                0.20067042331498647,
                0.3569772080082497,
                -0.3139713857810127,
                0.17590759471713893,
                -0.04812095383154123,
                -0.10113778364412984,
                0.0031596247323991988,
                0.2572951511828409,
                -0.13301493129689448,
                0.5053871319196298,
                0.008616163369483808,
                0.1304324779750594,
                0.17148791413231254,
                0.3572123664589829,
                -0.28510657384445265,
                -0.040215501247187764,
                0.40356143203364103,
                0.15359594379164634,
                -0.05558695301427408,
                -0.3193799593336887,
                -0.03239225576081612,
                -0.2741158151476373,
                0.38878643904408655,
                0.08421523911178631,
                -0.07296075031753153,
                -0.3939008752397236,
                0.12664610864624015,
                0.1670552747750773,
                0.16549072832036715,
                0.14127305543101457,
                0.26351622573897265,
                -0.4779043675596435,
                -0.16371275507203384,
                0.3764976338682823,
                0.03340993304505908,
                0.12927858344858106,
                -0.10030383041603304,
                0.27033658402667343,
                -0.040873086968477475,
                0.1767344217434266,
                -0.26011899893105583,
                0.09590806395747002,
                -0.0018344240389567385,
                0.012921031694479192,
                0.13468483200516765,
                -0.03718310543135773,
                0.363081130444741,
                0.0801553002639579,
                -0.36165208189081,
                -0.19529113361132522,
                0.30467793573512447,
                -0.3710617339303365,
                0.1091060780213391,
                -0.2272843044166999,
                -0.2280461242108272,
                0.07051015196452644,
                0.0011870136295350515,
                0.18031589712122822
            ],
            [
                -0.15218588411165615,
                0.026494564840291952,
                -0.4535277930096946,
                0.2911949439325919,
                -0.18477592700601211,
                0.0002146679515503087,
                -0.09265514795705308,
                0.26470608745662305,
                0.2627265827444036,
                -0.2234053785703556,
                -0.019463666753930492,
                0.23021903281911482,
                -0.07845181194079429,
                0.07421495659056496,
                -0.03368210713911968,
                0.43388726521319176,
                0.13332093970626085,
                0.03826342497338197,
                0.08060910354795778,
                0.1904023075839314,
                -0.42353348261157564,
                -0.02200618884798871,
                -0.13519701409090457,
                0.3725375474792457,
                -0.15486467241853935,
                0.10628042420658791,
                -0.10987512287590409,
                -0.03996851965002057,
                0.41829200371249114,
                0.06386500527539304,
                0.38131014393690715,
                -0.3115675050284417,
                -0.025565285225303793,
                -0.11930243783820506,
                0.3386478181178486,
                0.11156948529221264,
                0.0767193536041691,
                -0.5299988648569597,
                0.14285200002730927,
                -0.1605259706322607,
                0.2768915741282708,
                -0.050309183886830845,
                -0.1650459360497519,
                -0.1151858555884269,
                0.650549090101696,
                0.17248016740513114,
                0.04638561831971302,
                0.22168076711694615,
                0.13916486848963122,
                0.29813067861399317,
                -0.1170713415536804,
                -0.07892773704001535,
                0.11848324682591616,
                -0.27732011780987487,
                -0.7133762841815448,
                -0.013453517929106039,
                0.4453053178879614,
                0.15553379229139389,
                -0.000393828640994689,
                0.08917855668339296,
                -0.12506103287189557,
                -0.18832407786564442,
                -0.06407921343111535,
                0.2210993358271587
            ],
            [
                0.06766008583172241,
                0.16103635666815544,
                0.11793003441236183,
                0.14509379706383804,
                0.051115827948342483,
                -0.08724245869888492,
                -0.18599143774736485,
                0.09717380145329445,
                0.33998108473548816,
                0.2357273444502939,
                0.1820291651441321,
                0.20565501288123222,
                -0.4714362383166697,
                0.2699846941318401,
                -0.044659842447353666,
                0.6759589792961367,
                -0.16956780548848832,
                -0.16738858109677007,
                -0.15630719940688806,
                0.2818102237016527,
                0.001793887768997277,
                0.022164141989164953,
                -0.031863213420003374,
                0.20963212819420624,
                -0.20954615206477856,
                -0.10100274079583116,
                -0.2466655150395732,
                -0.1444976204221722,
                -0.004957131948714082,
                -0.1268033983380235,
                -0.2989015636423623,
                0.26801548023551763,
                -0.14131826680137655,
                0.09529450987087033,
                -0.12852318875581922,
                0.08779833781619831,
                -0.1749386316989252,
                -0.046950882649127924,
                -0.003173436953097896,
                -0.1205801884189341,
                0.05728030810400261,
                0.13127745480859943,
                0.2417587727699761,
                0.45315628583983675,
                -0.33423242770305384,
                0.2507197007457384,
                -0.05419295958703671,
                0.2040060964645885,
                0.1110498325012783,
                -0.35842795499044505,
                0.07042561550127795,
                -0.17826362909039375,
                0.17264397688090555,
                0.11536135753119363,
                0.13771261098543708,
                0.13471511986904083,
                0.008981684285662948,
                -0.7405410793941449,
                0.18615431699486581,
                -0.08362408363571538,
                0.18299727683361197,
                -0.2985605973342254,
                0.08166351852665786,
                -0.0929549520557613
            ],
            [
                0.2083974446531502,
                -0.06378591544581111,
                0.1658710573723225,
                0.15755458283406207,
                -0.3186803506672519,
                -0.09673813381190227,
                0.028754154510291147,
                -0.2236355406484562,
                0.08344613293138582,
                -0.20310613125715388,
                -0.04407543605776696,
                0.15608208452857802,
                -0.0570392742138579,
                0.0036285965287516614,
                0.10725688488945044,
                0.14517134067105347,
                -0.1491923673652067,
                0.015107804857490354,
                -0.14645127425523066,
                -0.027579197634514285,
                -0.21873512104261322,
                0.1589599187234036,
                -0.2558590125640189,
                0.2249935841080858,
                0.06374168917902921,
                0.32746388903916496,
                -0.40694224089935227,
                0.01749491075088073,
                0.35313750256569676,
                0.09589293708617651,
                -0.2553176145757674,
                0.24789651142638977,
                0.043686908744951285,
                0.08507852455735766,
                0.07040751648118763,
                0.1863944836524889,
                -0.19801779551267917,
                -0.2937143154272081,
                0.1820266856024371,
                -0.09860802681805339,
                0.15739689730587894,
                0.251358137001683,
                0.14492283438754233,
                0.13302357370829435,
                -0.21431461335758703,
                -0.33316973807899913,
                -0.3119994379163212,
                0.07010548580605502,
                -0.058808048922946915,
                -0.1390183648221803,
                -0.1422957973481324,
                -0.08782732370171986,
                0.19508762774343255,
                0.3224257493225543,
                0.3629186733216865,
                -0.00026408160029863024,
                -0.40954561746052326,
                -0.18528195221759342,
                0.11238932354506397,
                -0.13484878959559893,
                -0.13246510909253698,
                -0.103526459226355,
                -0.1395517852275867,
                -0.4980023836271671
            ],
            [
                -0.2486884298238041,
                -0.029927903848460606,
                0.3789538528744638,
                0.1693560282376077,
                -0.31561102083964404,
                -0.0959782048106124,
                0.04263550765121375,
                -0.20431453757967016,
                0.1483941296105495,
                0.035410667370498417,
                -0.12734762906289782,
                0.05361635491296901,
                0.26666205325542086,
                -0.4689189981633885,
                -0.1595060152679366,
                -0.08965980594991936,
                -0.08552704941580026,
                0.15061195574993227,
                -0.486649125274218,
                -0.017907507949225084,
                -0.23894957459501512,
                -0.0007272496934634005,
                -0.5695378952441853,
                0.041155886044487645,
                0.15241532408752498,
                -0.031860499441453305,
                -0.26317067077330897,
                -0.18914545257389656,
                0.10211477180662093,
                0.09916895018298635,
                -0.04447847700031521,
                -0.03250930658423613,
                -0.11707134498573356,
                -0.23486640788896254,
                0.24900408986745712,
                -0.12320302187028254,
                0.11568571190995774,
                -0.29032132296233126,
                0.014004546531973827,
                0.131467331087275,
                0.4510989122207764,
                0.08712202068057112,
                -0.23409104322544688,
                0.19786603897225383,
                -0.33692711072492365,
                -0.3401359947669605,
                -0.37872379842483106,
                0.22103497127613703,
                -0.2913148498460689,
                0.30262809835580046,
                0.24256187641944787,
                -0.0816535648802224,
                0.28396243323402637,
                0.1511727439335958,
                -0.14224424792912835,
                -0.11343167170347684,
                -0.7057814256446426,
                0.06993195899440574,
                -0.06875993414443075,
                -0.033637351847572515,
                -0.0817278050960609,
                0.3021715424575976,
                -0.022544038876039525,
                -0.22310992843349559
            ],
            [
                -0.17128153597104365,
                -0.11802638665666824,
                0.24742953886937585,
                -0.10622796401172746,
                -0.10324237595137056,
                -0.15727296977214988,
                -0.07335808752746016,
                -0.1839246374438241,
                -0.17084802423472906,
                0.3671790436243834,
                0.10470877625681414,
                0.15931351774446084,
                -0.26395383083663415,
                -0.18763745535993503,
                -0.18023672054334214,
                0.1043964943035017,
                -0.14604867254615325,
                0.12795239932452407,
                -0.13101915786769297,
                0.3868018555939542,
                -0.08081993362843556,
                0.2699548238264942,
                0.033420501053700646,
                0.3039985684583905,
                0.2979866238154704,
                0.04242976615878455,
                -0.1946299089470163,
                0.10174858181202862,
                -0.2375127369179486,
                -0.12429943653481076,
                0.23463715253007397,
                0.23854048071315642,
                -0.0065462947298158955,
                0.1838467574032612,
                0.09507977487645605,
                -0.07711277996292368,
                0.19671554368120509,
                0.03775531930476678,
                -0.016347029908331354,
                -0.030811803158893834,
                0.4348224311793271,
                -0.02690923114106699,
                0.2821803548452956,
                0.3509355495992517,
                -0.08510220011120884,
                0.004237843475280694,
                -0.03420012992090996,
                0.09560912542490227,
                -0.026984964068896212,
                -0.02239932099775687,
                0.17392544283454148,
                -0.2265428584387558,
                0.3467179626921129,
                0.09299837501415922,
                0.2063653424815463,
                -0.271257914989516,
                -0.40724325076905804,
                -0.14315796432377276,
                -0.10224077077882684,
                -0.18728348994111746,
                0.18947603352395068,
                0.29948281868015486,
                -0.06346534960232333,
                0.27410258117698505
            ],
            [
                0.3047537906779655,
                0.42473886144737977,
                -0.039493725739284447,
                -0.04534119887661006,
                -0.04285695887383651,
                -0.004305901986931064,
                0.13364934220733976,
                0.07755280059864633,
                0.05251158809196903,
                0.22329158257317497,
                0.11362153145384177,
                0.19709453312799488,
                -0.36195461573516235,
                0.06768851301291524,
                0.03904657584605767,
                0.34559968993034196,
                0.0045813952982602145,
                0.3025719377437298,
                0.23244710697693696,
                0.3718594893892294,
                -0.17379632189674,
                0.0626232710512722,
                0.11118160872736313,
                0.07687112099991857,
                -0.24979918340383506,
                0.2000943820644024,
                -0.036823754238738564,
                0.19694674882369215,
                -0.18985469808903277,
                0.06719888829923036,
                -0.4475939930486878,
                -0.0076830701986910594,
                -0.07305140706727196,
                0.3640210804426068,
                -0.06012167859775861,
                0.1434925491489257,
                -0.03996598802824878,
                0.551555522212381,
                -0.1058253665294819,
                -0.10600862521407972,
                0.015905685130626124,
                0.2440981160509862,
                0.04889866670892108,
                0.38945389630847177,
                -0.0276324463856479,
                0.15579586001220405,
                -0.007608626056888384,
                0.014296655599007503,
                0.1174297906798983,
                -0.3106374728127469,
                0.2954513787890636,
                0.19579549078066374,
                0.0606820785724003,
                0.17092164323201664,
                -0.10177786022777954,
                -0.09416431096711166,
                0.30172645874205617,
                -0.25385802118505163,
                -0.07007327334204765,
                0.048977233502873266,
                0.29144377526017134,
                -0.2869412966395439,
                -0.05327256772473093,
                -0.0261458042514451
            ],
            [
                0.14078199359099666,
                0.2777597089160064,
                -0.3516398891008921,
                0.18181747937564138,
                0.5813755908784846,
                0.0377709382969428,
                -0.03041951668389158,
                -0.15798760515863916,
                0.4766460628947727,
                -0.0320638604886699,
                -0.08063034072181638,
                0.12828032179821064,
                -0.030266024460359295,
                0.03937956935377067,
                0.01831504621100697,
                -0.07321983023496446,
                -0.059717011142747266,
                0.14774763471615157,
                0.29985654905758236,
                -0.3342428006571154,
                0.26483578447737244,
                0.0824500175110418,
                0.1608913546480454,
                0.18939828719330407,
                -0.25765403106326984,
                0.28721322658742793,
                0.2828613946295208,
                0.3869063474033604,
                0.3178743559916369,
                -0.06791450158179058,
                -0.10413910487718403,
                0.029305378247269132,
                0.09930425549766476,
                -0.41459294428073723,
                -0.15547829398002513,
                -0.268931759303431,
                -0.4090278474037947,
                -0.10933359600774713,
                0.17607291618103826,
                -0.1490297510660272,
                -0.41120237886161204,
                -0.04605390864983458,
                -0.07448039711623604,
                0.05262706840424035,
                0.20322642657450918,
                -0.33198675951908907,
                -0.25405358168179654,
                0.2627482024489159,
                0.12099501534235874,
                -0.1093117096853639,
                -0.3717284839201666,
                0.1104968943228588,
                -0.09759748191529928,
                0.24746234024929809,
                0.08137592675853446,
                -0.22612236500149935,
                0.1904188792811962,
                0.019441514382865763,
                0.009043182523382522,
                -0.19853232619347663,
                -0.03134805255752567,
                -0.4392332766895603,
                0.11136193814382934,
                0.10452037746505145
            ],
            [
                -0.14178254576316732,
                -0.0625017298795109,
                -0.12891495190737148,
                0.12489095370924427,
                0.5121124310084617,
                0.3816004497502201,
                0.27868794992181084,
                -0.2266672122380649,
                -0.2401155674256743,
                0.4907505954266645,
                -0.12007334475268351,
                -0.5667734689824196,
                0.25778127909658766,
                0.10879645001817634,
                0.1404022207854573,
                -0.23225811123255818,
                0.10462357604535939,
                -0.12049771474146784,
                -0.020140052050759315,
                0.3526876667399299,
                0.45062125608724124,
                -0.28094348619516385,
                0.32592563504027006,
                0.020883945779603744,
                0.13436065710494186,
                -0.0785084877603082,
                0.21538305865131252,
                0.5053212940805037,
                0.22425231347807364,
                0.27481427336889186,
                -0.21791389809997547,
                -0.1743852477294753,
                0.33599116226942727,
                -0.5552879503738296,
                0.6437081480455179,
                -0.08394869497769254,
                0.10251158133954774,
                -0.2114672336751701,
                0.02393122144077567,
                0.09459277134582407,
                -0.23060866413371314,
                0.001103251141494118,
                -0.03535063165247579,
                -0.14270483309183787,
                -0.059989571859472755,
                0.07081675872875869,
                -0.010164135789794011,
                0.39446847930669615,
                0.04451794831961203,
                -0.42598890994401345,
                -0.5137051554782877,
                0.1989114761613855,
                -0.046810485590176275,
                -0.10852687855264567,
                -0.1145163914485912,
                -0.23472844081858069,
                0.33592975135065267,
                -0.03144767861270237,
                -0.07813386565659876,
                -0.11674183527007238,
                0.31890407905400225,
                -0.06745212406842323,
                -0.04048196870887023,
                -0.043626730937678326
            ],
            [
                0.05969335025815163,
                -0.14378241672517303,
                0.06985448070579497,
                0.007599423452591526,
                0.3318439140433099,
                -0.05466338208401571,
                -0.010972719605871085,
                -0.37363637368246544,
                -0.15649056427375563,
                0.41280247327181296,
                0.13170205234835666,
                -0.1164660176708477,
                -0.16018263053057263,
                -0.11939299422525554,
                -0.04055477745021273,
                -0.04462801310939937,
                0.06273270194281563,
                0.10239779638227409,
                0.1738709180006411,
                0.37895990021279213,
                0.20503197346653287,
                0.02351151649624082,
                0.17488757923003276,
                -0.01973100038938379,
                0.05068868788631336,
                0.3138821555291309,
                -0.15798845955502733,
                0.17656350054033315,
                0.03301635204392305,
                0.03099069726571119,
                0.06608721161605112,
                0.272620790256075,
                0.13673805097898042,
                -0.19705673854989236,
                0.08112075528600686,
                0.07991162208233274,
                0.003689937934181836,
                0.4459845078166536,
                0.22340124830546412,
                -0.17877880072370256,
                -0.448250564686948,
                -0.09636772861434235,
                -0.4494822042432146,
                -0.3213308973363243,
                0.21185134749565762,
                0.19132539449535177,
                0.15505662197601797,
                -0.04826596812502791,
                -0.25836917452153096,
                -0.13182070114866085,
                -0.29315123368660456,
                -0.09686687515809643,
                0.04523055666898425,
                -0.033416914799501714,
                0.2142974964748497,
                0.009156015754314347,
                -0.09581644193121103,
                0.5878734488443693,
                -0.03583116818474183,
                0.12326654978073469,
                0.126342121311391,
                -0.16246512804870036,
                -0.3292560879045649,
                -0.11275458165709605
            ],
            [
                -0.038908311019318936,
                0.18872595649914212,
                -0.1714418605576138,
                -0.0014139853833058734,
                0.29627302755236457,
                0.2835230888356728,
                0.05743501600392162,
                -0.14893535215475293,
                0.09599537717815379,
                0.08160259471293248,
                -0.07127379073503883,
                -0.08106620736971525,
                0.08430898488830603,
                -0.028356757381459676,
                0.03317085800847729,
                0.04731890305395101,
                0.11454655885562193,
                0.051049547994589974,
                0.10392464644941324,
                -0.0972638126681973,
                0.3329749905146262,
                0.1888083934895893,
                0.4829572217808414,
                -0.01548120622870518,
                -0.2504000291867753,
                0.10185591775115674,
                0.09063544622910925,
                0.0014285644486080604,
                0.2791309474834706,
                0.15105134286750357,
                0.09209581440445007,
                0.07141249571221436,
                -0.07931104438718412,
                -0.026553217347683778,
                0.022331791019977048,
                -0.04695196655258718,
                -0.30987464026515066,
                0.3143542786993141,
                0.03966139150663851,
                -0.11435976676900791,
                -0.0593770036709773,
                0.27502636761440064,
                0.03278175510236146,
                -0.059105251749567204,
                0.09460906827221346,
                0.26141466241867767,
                -0.2606069701185033,
                -0.025978282970793264,
                -0.09567611185237684,
                -0.14404559106550807,
                -0.224282104179068,
                -0.006390335131235616,
                -0.08713294749570513,
                0.08603879166505005,
                0.07825615908705934,
                -0.027268786266757848,
                0.23152439482973958,
                0.04656052486874682,
                -0.029365410562428758,
                -0.39583319576090714,
                0.20077147301185846,
                -0.25085725078534293,
                -0.25587016669865714,
                -0.18051759385319752
            ],
            [
                -0.10044490590653062,
                0.26514960608158156,
                0.17353190250033956,
                0.1005655061526722,
                0.31810508803262794,
                0.18277144767171935,
                -0.0777555333730495,
                -0.2203943358528587,
                0.5726700054907599,
                -0.005634989549530812,
                -0.22920941281359797,
                -0.08107671233066939,
                0.04735024265878008,
                -0.2915764422648862,
                -0.05386706780879478,
                -0.25387641010373463,
                0.09704668910099766,
                -0.07303839835296932,
                -0.010342554782514382,
                -0.5004755037221543,
                0.03609879821886079,
                0.0071177218943892055,
                0.03388498608965643,
                0.03728948137171701,
                -0.47183520860386646,
                -0.16011309145801714,
                0.03487407355561803,
                -0.28656686780908863,
                0.2546663290068333,
                -0.08598352447681754,
                0.04023381220774867,
                -0.15245909298960483,
                -0.046957727636368074,
                -0.0024410470043370225,
                -0.3621965954145975,
                0.14304568958097388,
                -0.03148318748393117,
                0.21259904986184902,
                -0.02412594694672357,
                -0.17977780502910395,
                0.24129527925380817,
                0.13271949799551103,
                -0.16304286384657532,
                0.47684573221460286,
                -0.4257213258789917,
                0.10498477366482735,
                -0.17515631403461443,
                -0.055047573497183165,
                -0.01808889068047075,
                0.018882284015551202,
                -0.10664659592705747,
                0.1164564730627496,
                -0.2114802333777957,
                -0.11736162057620317,
                0.0457663194738618,
                -0.20444417880889687,
                -0.2988409733157642,
                -0.4495432336862194,
                -0.06299720679911873,
                0.2000724873963253,
                0.3256831847665479,
                -0.24602669498743504,
                0.20857242873613235,
                -0.2538776912829878
            ],
            [
                -0.2057410453928026,
                0.1710613050383836,
                0.11549195743159683,
                -0.17632836651036116,
                0.04159345574387615,
                0.053472556477849695,
                -0.42417094709043246,
                0.113722122194992,
                0.21727820853859886,
                -0.07243961041720862,
                -0.2367347440887076,
                -0.1724524712684182,
                0.22127687305666907,
                -0.02400963313548263,
                -0.11353009145280836,
                -0.1993993771782743,
                -0.01897873831979727,
                0.012615045573846366,
                -0.03082383237155912,
                -0.4162594712309133,
                0.1685304173221152,
                -0.029816817075034887,
                -0.18293634931028738,
                -0.02999048544051093,
                -0.39507693802538296,
                0.14878588311101468,
                -0.008897641234361299,
                0.029550416194736265,
                -0.12185657649530479,
                0.01750416495887464,
                0.2747473637440205,
                -0.0184940681870349,
                0.34847493192399775,
                0.08050057529174118,
                -0.3454837292765921,
                -0.188309636741194,
                -0.3698251509705415,
                0.013238795243149002,
                0.22383285751591916,
                -0.040397735407413635,
                -0.20391523766976813,
                -0.0022828108305710487,
                -0.08566432242255685,
                0.011745393476671582,
                0.1520401389973955,
                0.2687957728489026,
                -0.10592687607505463,
                0.03635180452389055,
                0.18100101288471637,
                0.3218657203688292,
                0.08489745008711798,
                0.3069507515892421,
                -0.5945606172463285,
                -0.134106624689774,
                -0.12838096993410758,
                -0.1435590991401212,
                0.1671704636003704,
                0.34984367459189614,
                0.13048550053865635,
                -0.12215541127506113,
                0.1478285443323556,
                -0.06469351623828147,
                -0.16383370777703446,
                0.12844606654496263
            ],
            [
                -0.20861745134340814,
                -0.03649373691726552,
                -0.1655010416599137,
                -0.12109322124272254,
                0.05295109232484983,
                0.18398254037231832,
                0.19985548981490953,
                -0.1905672879682102,
                0.05417159098486133,
                0.05021379026304439,
                0.3159656661392733,
                -0.06133125742516821,
                0.049436581071120304,
                -0.018860921864853393,
                -0.03415129437882685,
                -0.22902469311168927,
                0.04882309763502757,
                0.09526322138278172,
                0.01368341781706975,
                -0.5866044475802493,
                0.005477043680078025,
                0.10124983615135535,
                0.4984195621045381,
                0.01846183078366332,
                -0.32801579420907895,
                -0.13600837381495962,
                0.10193820414679183,
                0.11677670641423268,
                -0.16409567365814726,
                -0.1516194821622136,
                -0.4059593580771574,
                -0.3362239731123638,
                0.12884592384875557,
                0.542223579019245,
                -0.6031985631640089,
                -0.07815915122321797,
                -0.35938149114477663,
                0.7179319571928027,
                0.14803489302131684,
                -0.2561608008638529,
                -0.2484839530348652,
                0.024463721842124028,
                -0.10087408690928211,
                -0.1906164432116965,
                -0.09322145177319628,
                0.13675386835178155,
                -0.05786724945458535,
                -0.05099906237511751,
                -0.1667985575557363,
                0.360783345582448,
                -0.18138911901426535,
                0.09106536762921305,
                -0.027009315411050578,
                -0.0936214652973728,
                0.08431964681529026,
                -0.0775392876177971,
                -0.18304810444100675,
                -0.19780100965450695,
                -0.3581615094619974,
                -0.07572360229810021,
                -0.12976692599278514,
                -0.03280765053782023,
                0.12487612705157028,
                -0.2276298629227901
            ],
            [
                0.5236279967393735,
                0.14038486895011665,
                -0.32023859421488066,
                0.09731018958626943,
                -0.12786021029763553,
                -0.2159555358434353,
                0.0320867853320715,
                0.10753694003067285,
                0.3311175425673625,
                0.055186297818297335,
                0.22519269507653367,
                0.021115832193312555,
                0.4864298282873166,
                -0.0821253442115203,
                -0.35179047369667,
                -0.3400320614589063,
                -0.23574220028439838,
                0.15933653897111913,
                -0.20896021305247603,
                -0.49418781961550856,
                0.2270815680171922,
                -0.04176787793125639,
                -0.2242096008207261,
                0.13524043701743843,
                0.18550837378189225,
                0.25552224041203936,
                0.32134259490303957,
                0.13448431899028207,
                0.35426244782423494,
                0.13462228473290597,
                0.050493674986253755,
                -0.17057019918074726,
                0.25190872559676,
                0.11155429500841099,
                -0.3006891458570354,
                -0.157760870635384,
                -0.25768929816817776,
                0.34754020082667464,
                -0.09956318541003892,
                -0.17108286531035113,
                -0.06826542188972622,
                -0.011215796738530948,
                -0.08589906401312343,
                0.017029898144573608,
                -0.34227977039741075,
                -0.03920025745269665,
                -0.1319721744275582,
                -0.05169713349712624,
                -0.3004624003673223,
                0.23473766251168748,
                0.023571500173379868,
                0.274844568787529,
                -0.3211341978792162,
                -0.1249845232309752,
                0.21699970676299693,
                -0.028128997705379195,
                0.08607603983039862,
                -0.05911548312908957,
                -0.06466253059224022,
                -0.09741296721555719,
                -0.005572024520650058,
                -0.10812026760291645,
                -0.03700970905881308,
                -0.30382099350415176
            ],
            [
                0.11170511018499073,
                0.050936542538069444,
                0.2184012433035061,
                0.30178767123037753,
                0.1351408854035268,
                0.03184405673234723,
                -0.1547143316916071,
                0.209831601865356,
                -0.2999987393865623,
                0.14582478907190455,
                0.10728791251243239,
                -0.30669570264021623,
                0.3322093228008045,
                -0.23518702157275756,
                0.11640619568141392,
                -0.23635215999874853,
                -0.1617079592923451,
                -0.07407872603375296,
                -0.13028393513034806,
                -0.14948017348099502,
                0.2130566736556239,
                -0.18580839629392357,
                -0.15515486196404701,
                0.17992988901920098,
                -0.21808423118834927,
                -0.11576856701178495,
                0.5083490845632915,
                0.11091896122908476,
                0.15607873297747285,
                0.12111181960315616,
                0.21528349958323942,
                0.02610051459578652,
                0.09908397248144023,
                -0.44623913111886565,
                -0.1718397911226134,
                0.048057835431479096,
                -0.23933863155827836,
                0.11638886482987426,
                0.027305829963438406,
                -0.166911916538145,
                -0.5088294999470726,
                -0.04944761214703328,
                0.13558979859161524,
                -0.04382818299145777,
                0.15946951364292755,
                0.02637263326235723,
                -0.07946481648198829,
                0.11400455538273653,
                -0.02093101033965876,
                -0.10237039186096847,
                -0.011988496460001389,
                0.11395824581099563,
                -0.35082303187332786,
                -0.004731629468200192,
                0.11930780516582273,
                0.10063396354757642,
                -0.33705975901428686,
                -0.12138735009038808,
                -0.2074067462836389,
                0.04504850874823388,
                0.004480431056612632,
                0.042769469360537146,
                0.059425085131566836,
                -0.29090777227231135
            ],
            [
                -0.04238958742999024,
                0.035709578425138985,
                0.2924752050394565,
                0.061357700717286925,
                0.1538679482819205,
                0.22064786821740223,
                -0.021399689847118156,
                0.15492802398402541,
                -0.36055128531891134,
                0.26989108554298014,
                0.23324449165193264,
                -0.07490915330779872,
                0.33022273802333785,
                -0.07212807490775615,
                0.07636642487224661,
                -0.060838420948285246,
                -0.18178288053388478,
                0.0165405418810926,
                0.2588907514443868,
                -0.22024215602716798,
                0.20174796210393817,
                0.06484017009666256,
                -0.035337658732957675,
                -0.3307654902153515,
                -0.17271277725447554,
                -0.012934684386645913,
                -0.1722375394733359,
                0.056404042117425036,
                0.24332207912837242,
                0.32178557747394976,
                0.13045011541919826,
                0.0777062248982294,
                0.08043224129614122,
                0.1321089212566027,
                -0.2119102840968201,
                0.0202311571786135,
                0.051254851062712936,
                0.1512798493194733,
                -0.35220045377863973,
                -0.11319582306195171,
                0.005393533545097749,
                0.2238891625378558,
                -0.07353088376610493,
                -0.28125105961818186,
                0.007423860465728392,
                -0.21288664958434286,
                0.05087369051367853,
                0.05748874453860802,
                -0.2855084227312399,
                -0.10847024483776302,
                -0.29910562229589516,
                0.057613528363173815,
                -0.10207066755294035,
                0.11429455254326597,
                0.11423702981820087,
                -0.1249494990821151,
                -0.44229593343760437,
                -0.001009155257618374,
                0.18206246537640114,
                0.07867865787711086,
                -0.25515768988798493,
                0.10944866377876318,
                0.06723572316963194,
                0.01065582890903528
            ]
        ],
        [
            [
                0.6847914611230723,
                0.929045122420603,
                -1.109237465075502,
                -1.0296659594632476,
                -0.9880788456595956,
                1.1298935237728625,
                1.5979506864001392,
                1.3332477760972654,
                -2.1472111311115785,
                -0.9651655212287464
            ],
            [
                -0.29176124714668294,
                -1.3623683748586495,
                0.19426927125112156,
                0.22343877736146892,
                0.10994937913502682,
                0.696910293507937,
                0.031161115448589984,
                0.8553914411828742,
                0.9169963240627411,
                -1.2649388381096465
            ],
            [
                -0.9291490012698985,
                0.6046336041864389,
                -0.4021281115598587,
                0.6926586790254126,
                0.08548661804223955,
                0.042760547568623034,
                -0.3711735415338863,
                -0.36162150664830833,
                -0.8880008646434575,
                0.7177843781073386
            ],
            [
                -0.10945740307812862,
                -0.01544878562714124,
                -0.18300278592169578,
                0.03303970332929893,
                0.25698848581663447,
                -0.23690467874964466,
                -0.08634758631995634,
                -0.2650867683767036,
                -0.06038110180480731,
                -0.49565290402563783
            ],
            [
                0.1530957522721316,
                -0.3243814908293366,
                2.413983538008569,
                -0.7109235578050114,
                0.6447479511522517,
                -1.1874162845056726,
                1.2705203058056507,
                -0.2206897053589502,
                -1.8817884678839432,
                0.10144081518917875
            ],
            [
                0.24255419110089976,
                0.12255443853704397,
                0.007164935810483395,
                -0.2536971236210943,
                -0.390392920820344,
                0.1917862077059773,
                0.13731183561717475,
                -0.029030968995713443,
                0.4964910996820763,
                -0.4479569137564282
            ],
            [
                -0.1210638861514889,
                1.502454117548263,
                -0.9798839779835543,
                0.06282950128881279,
                -0.2294978387825938,
                -0.22660271871181856,
                0.7487796452718769,
                -0.3841161495168025,
                -0.4751400761310336,
                -0.41758125875586727
            ],
            [
                0.6650415764843587,
                0.20218382544633534,
                -0.9201000412195816,
                0.4302263559913486,
                -0.46870384233702855,
                -0.8515136213317254,
                -0.9326450607961069,
                -0.022190889868795218,
                0.8791647425987462,
                0.30690969262598905
            ],
            [
                0.3039740800103609,
                -0.8192499056157613,
                -1.1759565296337104,
                0.20793506312591997,
                0.23469852684050208,
                1.190577333590811,
                0.7797256240715296,
                -0.595484090379395,
                0.5383443708517252,
                -0.10686340205320834
            ],
            [
                -0.25968861695846296,
                0.8488520100872701,
                0.8019978660209393,
                -0.5077338019643433,
                1.1368501452844286,
                -1.196007747609505,
                0.31196138900778636,
                -0.25505764780176365,
                -0.39024805060863826,
                -0.9625900298119029
            ],
            [
                -0.17304996993765312,
                -0.48894739543531546,
                -0.3888791395186259,
                -0.1028701140689748,
                0.30602698835428926,
                0.15315409408981046,
                -0.023413338248223003,
                -0.4985671029180786,
                0.6688451067145362,
                0.2794161630220811
            ],
            [
                0.7182562983105134,
                -1.1088108672182675,
                -1.0065680247644897,
                -0.35473393747603055,
                0.25764707523923686,
                1.0020786604254317,
                -0.49579846702356156,
                -0.5052805201593662,
                0.5664519359648996,
                0.3429685141641171
            ],
            [
                -0.7442217331628557,
                1.1132548965585025,
                0.5805665005637484,
                0.3219900900629653,
                -0.40756162130800494,
                -0.8589314910615068,
                0.4662113059990759,
                -1.415759234438889,
                1.7842524447891703,
                -0.8915665150659507
            ],
            [
                0.8592747982774526,
                -0.3899539126968099,
                0.0210361776115008,
                -0.8207792849098584,
                -0.7735509655563111,
                0.2940912155690645,
                -0.8018293017512724,
                1.4559890652793253,
                -0.8679750448652404,
                1.6467449180612581
            ],
            [
                -0.36088610197565796,
                0.20716401817616725,
                0.0457600075345994,
                -0.1172415934067611,
                0.327404057296644,
                0.03759327049933974,
                -0.23553041660479457,
                0.060544945004679634,
                0.3274529327467193,
                -0.2130468116368064
            ],
            [
                1.888958849586826,
                1.077134854532737,
                -0.3412963094261895,
                0.24927081245315874,
                0.911713944741668,
                -2.368836789156926,
                -0.701441389222992,
                -0.8564558393243218,
                -1.006653674771848,
                1.2598471747825275
            ],
            [
                -0.23029432157023805,
                0.3519618152057027,
                0.8326834641044945,
                -0.2198629520118071,
                -0.09633577012010126,
                -0.07264690925204949,
                -0.3070663885429614,
                -0.3668600926700747,
                0.10471335002734423,
                -0.14102394292280115
            ],
            [
                0.11849288555675647,
                -0.577138486143332,
                0.4823373485375625,
                0.22390637438838118,
                -0.24315790078474875,
                -1.0861791576527133,
                -0.05730119903600866,
                -0.8505345350635632,
                0.8900061465266511,
                1.0263670951375254
            ],
            [
                0.20889194300162303,
                -0.014911824373686499,
                0.7357806176676032,
                -0.06922321192883298,
                0.3150737082999471,
                -0.2915482122033408,
                -0.7422120936878746,
                0.20628674095015287,
                -0.041430030276814085,
                0.021600580881140235
            ],
            [
                -0.00047464109219932525,
                0.9568541591776897,
                -0.04086226999899774,
                -1.1406839740944037,
                0.6896787900388709,
                -0.6728544408578855,
                -1.068234993664917,
                1.3594023855748765,
                -0.9812405827033519,
                0.5231269867670211
            ],
            [
                -1.2407030111997746,
                -1.389096894703547,
                2.1710556185985244,
                -0.19219539425589033,
                0.6258045927794088,
                -0.08222118981679756,
                1.6219936333642808,
                -0.4452016035558525,
                -0.8291448445359202,
                0.012024011117809971
            ],
            [
                -0.12016138520131593,
                -0.37593006521836514,
                -0.23820716129140465,
                0.34142674428232744,
                0.03123904996967202,
                0.36658108259984146,
                -0.06342605071050748,
                -0.21525964971580308,
                0.9063879288756311,
                -0.3890103006605846
            ],
            [
                0.9468701758261246,
                -0.07736739639340884,
                0.03484036115536117,
                0.7380260389229697,
                0.8128357472047425,
                -1.1647731926159277,
                0.7501761214043897,
                0.7136240288565175,
                -1.1885763786008203,
                -0.5304439870925024
            ],
            [
                -0.10358458694697326,
                0.2837403197908865,
                0.182714602634161,
                -0.057953140301008586,
                0.058152937997559134,
                0.046311809848549185,
                -0.006732674079672059,
                0.04709212093372928,
                0.017277366623694754,
                -0.15811917183783178
            ],
            [
                -1.3116336860282238,
                1.202270071008269,
                -0.3116165404121265,
                -1.5091667336245806,
                0.3157476679068803,
                1.019505807046629,
                -0.7242689994943289,
                0.33711109006081585,
                0.9867175434227201,
                0.2579404699486394
            ],
            [
                1.1520136365713958,
                -1.2424393378763026,
                -0.06418726062958169,
                -1.6476576938946332,
                1.3511285014183632,
                0.76178404970342,
                0.4100773155874747,
                -0.5066069640095668,
                0.03475800385224764,
                -0.012408427821410264
            ],
            [
                0.316812225275029,
                0.24975450862023316,
                -0.6461554841711872,
                0.24192316741589812,
                -1.9618543006563924,
                -0.4016891673956283,
                0.45031639355726155,
                0.8256417031418923,
                0.9355883033656468,
                -0.6174780364616207
            ],
            [
                0.8276931239207745,
                0.2701969612195141,
                0.49766808186671213,
                -1.7419026814234781,
                0.3793558655253219,
                0.41195884079612166,
                0.616051810082678,
                -0.5891194316355448,
                0.30373614539761157,
                -1.1118004978027471
            ],
            [
                0.004316201597368871,
                0.8529060583974759,
                0.3026037614918433,
                0.7614392756686453,
                0.8590122724740473,
                -1.7882351858475891,
                0.43225309947395396,
                -1.8545026475712603,
                1.6354292611452088,
                -1.2775367008674687
            ],
            [
                -0.0676748890138671,
                0.2906351381448831,
                -0.11133172945004834,
                -0.08322971470128067,
                -0.4052044710033824,
                -0.20002392979060077,
                -0.08194261293255557,
                -0.18749445707490625,
                -0.09096397437488309,
                0.02590810878249277
            ],
            [
                -0.9702082932453187,
                -0.21979881540093,
                1.741187803669767,
                1.3936190784277964,
                -0.9086069010712897,
                -0.03909454360934013,
                -1.0811241160422531,
                -0.4787063659681348,
                -0.025570557854612475,
                1.1330425051425974
            ],
            [
                -0.3453085234617381,
                1.1040051213099087,
                1.0719721196517276,
                -0.014669041739520336,
                0.7749642808106084,
                -0.7857289109430925,
                -0.005729080370621348,
                0.4783689368843249,
                -1.3170258213249573,
                -1.4548779158502834
            ],
            [
                0.013034692254841003,
                0.1329827157838834,
                0.024807417784201705,
                -0.20410452398373236,
                -0.08660072383672929,
                -0.07433362275551762,
                0.32604680715669454,
                -0.19274114268714615,
                -0.01576216578904748,
                -0.17768438518930796
            ],
            [
                0.6983792189062535,
                -1.0165553336816313,
                -0.8285708440405675,
                1.0272412295105238,
                0.5086986624810825,
                1.3429511733356365,
                -0.23505942232486302,
                0.8754913513845703,
                -1.3599261462634824,
                -0.0008239382212822531
            ],
            [
                -0.6875599937391325,
                1.233951002567995,
                -0.3428663380599732,
                -1.6389394758812441,
                1.2272389994654143,
                -0.5258304517564999,
                -1.0928534516267825,
                1.491982543205988,
                0.10396452208798108,
                0.7251535609041068
            ],
            [
                -0.5043495503479641,
                -0.07361588069013389,
                -0.2796746823918265,
                -0.5473107535509498,
                0.4306498980300102,
                0.09379519795516536,
                -0.21858759070472558,
                0.6056310042097764,
                0.14674633195515624,
                -0.1571479610446887
            ],
            [
                -0.3686706357599335,
                0.650740326839416,
                -0.5322632311586699,
                -0.7684148771074621,
                -0.04016686508456142,
                -0.65292840728538,
                -0.13922379068618146,
                1.1440077581596675,
                -0.5168437819444313,
                1.3453282916437772
            ],
            [
                0.19407046587874277,
                0.5102439032111177,
                -0.13329815381806775,
                1.4214834248362125,
                -0.35446899216455285,
                1.4637743520005277,
                0.6909593314246264,
                -0.07911018455191104,
                -2.394403598499262,
                -1.4216008021644742
            ],
            [
                0.03148357665748006,
                0.02307609125177056,
                0.007533191546647048,
                0.3446950633911658,
                -0.2604512548028109,
                0.24927951458941283,
                0.06201765786346671,
                0.322052569404473,
                -0.21303317111782089,
                0.0042972805050309655
            ],
            [
                0.32519779759493006,
                0.8191388630479245,
                -0.26760221964646813,
                -0.5436128058148967,
                0.29403583816423084,
                -0.2864313515761277,
                0.05080160970690686,
                1.0268762381115453,
                -0.8273093354964959,
                -0.5895838568265217
            ],
            [
                -1.0861621305830207,
                -2.088048611064486,
                -0.17304510949536758,
                1.1167604384668934,
                0.007458767479101664,
                -1.3931703953004357,
                -0.2912229759780425,
                1.8098719448485807,
                1.1420828155684966,
                0.14835908443057
            ],
            [
                0.3345211289005099,
                -0.04019757423360291,
                0.15580725325277092,
                0.04915516052416355,
                0.03447149720199694,
                0.09812617541418535,
                -0.2505960791415542,
                -0.17448755300381164,
                0.28661594537022717,
                -0.3073715575484493
            ],
            [
                -0.1079232530322348,
                -0.4418073506659262,
                -0.4033612265816372,
                -0.5909781811201054,
                -0.6547189079620448,
                1.012310857485366,
                0.01598823849635692,
                -0.3266467420826997,
                -0.4866117871807378,
                1.2993476447453571
            ],
            [
                0.3938920117869946,
                -0.5675586095981434,
                -1.6613614035335202,
                0.8124789275115523,
                1.8385002132026949,
                -0.5264924187304286,
                0.10923320471586787,
                -0.31174738670208596,
                -0.09604362487133523,
                1.2288022321533596
            ],
            [
                0.07922883124814041,
                -0.2364907397788171,
                1.1306058493618263,
                -0.7010935244907842,
                0.25913955177371856,
                -1.1546010169882317,
                -0.9518449882137774,
                1.040135209117202,
                0.4047670576759597,
                -0.39032881412209774
            ],
            [
                1.1943244521999001,
                0.5630300901825471,
                -0.4039713307662254,
                0.6133934359138863,
                -0.20419531121044454,
                -0.6943913284624744,
                -0.9166073153022607,
                0.7009864118079759,
                -0.2854916842128665,
                -0.8534316779022942
            ],
            [
                -0.22842219755094845,
                0.24827478784080162,
                -0.22890105067270772,
                -0.15442717464655828,
                -0.003935562029634031,
                -0.18106064028601473,
                0.011822120275014465,
                1.3650058674460592,
                -0.045022153873943475,
                -0.8950043485752116
            ],
            [
                0.003994754888687012,
                0.06945595974894102,
                -0.09428413542044163,
                -0.06749299430173233,
                -0.40243774715862857,
                0.23460109369963641,
                -0.11293992591002319,
                0.1567032074020163,
                -0.24507911850692132,
                -0.10629830331248304
            ],
            [
                1.0282520679896163,
                0.24044944312863348,
                -0.5181160289657175,
                -1.068384893623091,
                -0.33062212392664136,
                0.772415513927404,
                -0.19270270879370513,
                -0.3307842769246459,
                -0.606198219601316,
                1.1146651404514947
            ],
            [
                -0.1626266311483478,
                -1.0851316358264222,
                0.4293326750754762,
                1.0253663869184388,
                -1.8115861866646872,
                0.5111493017700829,
                -0.43841440861190567,
                -0.49472348100374175,
                1.0981438752802284,
                0.9820202984721167
            ],
            [
                -0.8538728174552851,
                0.23914394694807709,
                -0.39706443128727564,
                1.3254050580684258,
                0.013758974510964903,
                0.19887519061764775,
                -0.5616880218746246,
                1.1334770326360697,
                -2.195846867308616,
                0.9880111460148362
            ],
            [
                0.004258911383993016,
                0.019999903586214035,
                0.30561509349774135,
                -0.024967336036152313,
                -2.3748364223121174,
                0.42703724495872025,
                0.12915627509954689,
                -0.5782163163244823,
                0.511290365988264,
                1.1484101651403038
            ],
            [
                -0.29341007304028816,
                -0.5690240766561032,
                -0.5550533579815131,
                0.15940615062168126,
                0.7300607878104223,
                -0.6198874058453893,
                -0.2803893678920457,
                -0.43967737426147185,
                0.02519282345272279,
                1.4351897265476452
            ],
            [
                0.0397503677989444,
                1.0796386313576904,
                -0.0878153516308204,
                -0.7722689707255588,
                0.061996997184853575,
                0.6240309517473159,
                0.2820660191765626,
                -1.2858426052815806,
                -0.6982167652316053,
                0.025142081842744832
            ],
            [
                -0.5291751959173229,
                -0.27107074834620515,
                -0.5218577475583568,
                -0.8962053520793666,
                2.0862335113832766,
                0.3978837845980626,
                1.8559404341451529,
                0.2608255793652267,
                -1.0160407043439375,
                -1.1775634783479512
            ],
            [
                0.025142584772069404,
                -0.0293329138556431,
                0.2190776932662565,
                -0.05979671791797632,
                0.13231481278902515,
                0.15354871894045008,
                -0.3022120212301151,
                -0.08631240519932118,
                -0.16999123290780616,
                0.19036526896717365
            ],
            [
                0.9765282340009444,
                -1.1298214601328993,
                0.788328804041033,
                -0.3893278813698013,
                -0.25443556907523,
                0.19123181817197832,
                -0.8747181918076673,
                1.3637033991971523,
                -0.155883696252275,
                -0.9003831526739338
            ],
            [
                -0.8091832494298127,
                -1.017212037148768,
                1.217770855324723,
                -1.4389193337888708,
                0.34648076996195026,
                0.7447908693270295,
                -0.7290817563900882,
                0.9796707438945385,
                0.9411666015762776,
                0.041476978134276914
            ],
            [
                0.06345039739443027,
                -0.2392701754306717,
                0.2724057277802245,
                -0.28836100240406304,
                0.22487724408920776,
                -0.024143135308200322,
                0.1039548795580274,
                -0.15450732319459723,
                0.40476053657532163,
                -0.004240793212669484
            ],
            [
                -0.26630913376899,
                -0.0881703416819481,
                -0.05737388621987371,
                0.4999798855250729,
                0.08604916945252207,
                -0.06940077415054952,
                0.08196555805843934,
                0.16139333473223164,
                0.3562366085721089,
                -0.05160974732846019
            ],
            [
                -0.17905556329832964,
                0.012320842793252136,
                -0.45005967359781207,
                0.5699302385040175,
                0.2800208900200815,
                0.7302898269898701,
                0.07063961423394007,
                1.1832722473263417,
                -1.123940736325742,
                -1.0443010636185903
            ],
            [
                -1.4951992840943003,
                1.295239938914619,
                0.43151814826588275,
                0.49871610892954077,
                -0.301178184854797,
                1.5899962369076763,
                -1.846235562939636,
                -0.347884304695151,
                0.498467540589763,
                -0.18476281881986553
            ],
            [
                0.1977506832662874,
                0.10440436896926684,
                0.024764484228384055,
                -0.06104032917328426,
                -0.10799976014394484,
                -0.25938516252156835,
                0.03384464998740798,
                0.29856648041348516,
                -0.07826354662789248,
                0.2269759214591849
            ],
            [
                -0.040770380028636984,
                -0.048971914312117344,
                1.1410505146992376,
                0.4067519303867186,
                -0.7682287820574981,
                -0.28099234708921006,
                -0.5304409366304447,
                -0.01701472626146127,
                -0.5930860206011163,
                0.7324573167769599
            ]
        ]
    ],
    "biases": [
        [
            [
                0.0003704212927188817,
                0.0019742639031761202,
                0.005001916115517979,
                9.238435690328017e-11,
                0.0014018610672744656,
                0.00039915981040253116,
                -0.00238335536792913,
                -0.0026868140069714256,
                0.004990622896380884,
                0.0016059038048866954,
                -9.643140402292412e-05,
                0.0019929417382135418,
                0.0009374166347859293,
                -0.004340605174599054,
                -1.813651539954603e-05,
                0.006081579186593542,
                5.842750616703081e-05,
                -0.001262600525007679,
                -0.00086830937876386,
                -0.0006691136695590755,
                -0.004386301559636247,
                -0.0003208317929883637,
                0.0016790044262491345,
                2.472369941404967e-08,
                -0.002362277008744393,
                0.003841049581018452,
                -0.0013697148868561891,
                0.0026462120725837365,
                -0.0019592265674839896,
                8.54116882438878e-05,
                0.004624216178198878,
                0.003902289439840577,
                8.647229914780835e-05,
                0.0020569665553693546,
                -0.005454844749874239,
                0.00037022054969142144,
                -0.0018844101904182244,
                -0.0021061252717610476,
                -1.2379214118769762e-05,
                -0.00012208279934470488,
                -0.008635515546230056,
                -9.281835684367442e-05,
                0.0005908024009070348,
                0.00023077847450047776,
                -0.00025398517941521817,
                0.00111748668074854,
                -0.0011365608303140686,
                0.0006280934502407487,
                -0.0007059939026908559,
                0.0004346915363503166,
                0.0025897259218757994,
                0.0006732885962898078,
                0.0002327066449920183,
                -0.0005440400397437677,
                0.0011370657774341642,
                -0.00018137426692729438,
                -0.0004928249757843866,
                0.004617752544835359,
                0.00025590540464781993,
                -0.00018787138668077856,
                0.001186579394979052,
                0.0029628165305864607,
                -0.0001940237332057633,
                0.0006403229062683271
            ]
        ],
        [
            [
                -0.008180638796618685,
                0.11339061567762233,
                0.027068601675946644,
                -0.10557537899138526,
                -0.049415270096891055,
                0.05467087658080101,
                0.028228968201763738,
                0.04521566930489883,
                0.0935655336963121,
                -0.19896897725245047
            ]
        ]
    ]
}